digraph Tree {
node [shape=box] ;
0 [label="LSTAT <= 9.605\nmse = 87.9687\nsamples = 303\nvalue = 22.8122"] ;
1 [label="RM <= 7.1415\nmse = 88.9624\nsamples = 120\nvalue = 30.5808"] ;
0 -> 1 [labeldistance=2.5, labelangle=45, headlabel="True"] ;
2 [label="DIS <= 1.4728\nmse = 46.7772\nsamples = 92\nvalue = 27.0435"] ;
1 -> 2 ;
3 [label="mse = 0.0\nsamples = 4\nvalue = 50.0"] ;
2 -> 3 ;
4 [label="LSTAT <= 4.915\nmse = 23.86\nsamples = 88\nvalue = 26.0"] ;
2 -> 4 ;
5 [label="mse = 15.3479\nsamples = 21\nvalue = 31.5143"] ;
4 -> 5 ;
6 [label="mse = 14.0101\nsamples = 67\nvalue = 24.2716"] ;
4 -> 6 ;
7 [label="RM <= 7.3935\nmse = 51.3689\nsamples = 28\nvalue = 42.2036"] ;
1 -> 7 ;
8 [label="RM <= 7.179\nmse = 2.34\nsamples = 8\nvalue = 35.6"] ;
7 -> 8 ;
9 [label="mse = 0.09\nsamples = 2\nvalue = 37.6"] ;
8 -> 9 ;
10 [label="mse = 1.3122\nsamples = 6\nvalue = 34.9333"] ;
8 -> 10 ;
11 [label="CRIM <= 2.7422\nmse = 46.5605\nsamples = 20\nvalue = 44.845"] ;
7 -> 11 ;
12 [label="mse = 19.8435\nsamples = 19\nvalue = 46.0526"] ;
11 -> 12 ;
13 [label="mse = -0.0\nsamples = 1\nvalue = 21.9"] ;
11 -> 13 ;
14 [label="DIS <= 2.0037\nmse = 21.7918\nsamples = 183\nvalue = 17.718"] ;
0 -> 14 [labeldistance=2.5, labelangle=-45, headlabel="False"] ;
15 [label="LSTAT <= 17.16\nmse = 16.226\nsamples = 56\nvalue = 13.2214"] ;
14 -> 15 ;
16 [label="RM <= 4.4375\nmse = 10.6231\nsamples = 16\nvalue = 16.4938"] ;
15 -> 16 ;
17 [label="mse = 0.0\nsamples = 1\nvalue = 23.1"] ;
16 -> 17 ;
18 [label="mse = 8.2278\nsamples = 15\nvalue = 16.0533"] ;
16 -> 18 ;
19 [label="TAX <= 551.5\nmse = 12.4706\nsamples = 40\nvalue = 11.9125"] ;
15 -> 19 ;
20 [label="mse = 2.9419\nsamples = 8\nvalue = 15.575"] ;
19 -> 20 ;
21 [label="mse = 10.6609\nsamples = 32\nvalue = 10.9969"] ;
19 -> 21 ;
22 [label="LSTAT <= 14.665\nmse = 11.399\nsamples = 127\nvalue = 19.7008"] ;
14 -> 22 ;
23 [label="RM <= 6.6175\nmse = 6.8296\nsamples = 73\nvalue = 21.2123"] ;
22 -> 23 ;
24 [label="mse = 4.2767\nsamples = 66\nvalue = 20.7576"] ;
23 -> 24 ;
25 [label="mse = 10.5657\nsamples = 7\nvalue = 25.5"] ;
23 -> 25 ;
26 [label="CRIM <= 0.6148\nmse = 10.3121\nsamples = 54\nvalue = 17.6574"] ;
22 -> 26 ;
27 [label="mse = 6.4287\nsamples = 25\nvalue = 19.808"] ;
26 -> 27 ;
28 [label="mse = 6.2355\nsamples = 29\nvalue = 15.8034"] ;
26 -> 28 ;
}